{
  "weights_sample": {
    "input_y_2": [
      -0.08233775943517685,
      -0.1624372899532318,
      0.06422334164381027,
      -0.14154845476150513,
      -0.07592497766017914,
      -0.12809127569198608,
      -0.09611746668815613,
      -0.084761843085289,
      0.12818945944309235,
      0.021737711504101753,
      0.07801290601491928,
      -0.07296868413686752,
      0.052671585232019424,
      -0.06239600479602814,
      -0.11392657458782196,
      0.01477563101798296,
      -0.0444134883582592,
      0.07741770893335342,
      0.13053515553474426,
      -0.06883592158555984
    ],
    "hidden_layer_2": [
      0.10103961080312729,
      0.017000172287225723,
      0.06551026552915573,
      0.0009444861207157373,
      0.1515074074268341,
      0.07703473418951035,
      1.5764138879603706e-5,
      0.1392289251089096,
      0.046329107135534286,
      0.05130832642316818,
      0.09666570276021957,
      0.1099916398525238,
      0.03738587349653244,
      0.059712816029787064,
      0.2965214252471924,
      0.06334040313959122,
      0.06351277977228165,
      0.04966813325881958,
      0.03886505588889122,
      0.10355325788259506
    ],
    "input_x_3": [
      -0.05284036323428154,
      -0.19216680526733398,
      -0.10168103873729706,
      0.23500145971775055,
      0.01724911481142044,
      -0.06143859401345253,
      -0.17419269680976868,
      0.23285804688930511,
      -0.15891504287719727,
      -0.044827599078416824,
      -0.11003851890563965,
      -0.22805681824684143,
      -0.16093604266643524,
      -0.09709588438272476,
      -0.08620800822973251,
      -0.22430634498596191,
      -0.03014386259019375,
      -0.15116754174232483,
      0.02970167063176632,
      0.03322198987007141
    ],
    "input_y_1": [
      0.00816305447369814,
      0.18441921472549438,
      0.2921055555343628,
      0.0029328465461730957,
      0.04787049442529678,
      0.011040087789297104,
      -0.14274410903453827,
      4.6834447857690975e-5,
      0.1262708157300949,
      0.22402140498161316,
      -0.11958172172307968,
      0.17107707262039185,
      0.1330268383026123,
      -0.13663800060749054,
      0.0005785792018286884,
      -0.1746402233839035,
      0.30344247817993164,
      -0.0037708948366343975,
      0.10470171272754669,
      0.1444486379623413
    ],
    "input_y_3": [
      -0.9907497763633728
    ],
    "hidden_layer_1": [
      0.0,
      0.0,
      0.0,
      0.024511732161045074,
      0.0,
      0.0,
      0.027671370655298233,
      0.0,
      0.0,
      0.0,
      0.010926932096481323,
      0.0,
      0.0,
      0.0,
      0.0,
      0.0,
      0.0,
      0.0,
      0.0,
      0.0
    ],
    "input_x_1": [
      0.13702388107776642,
      0.12335988134145737,
      -0.08760473132133484,
      -0.04313298314809799,
      -0.015607062727212906,
      -0.08108626306056976,
      0.0016128076240420341,
      -0.13840323686599731,
      -0.09350303560495377,
      0.1102570965886116,
      0.07925273478031158,
      -0.12738485634326935,
      -0.12703368067741394,
      0.12595893442630768,
      0.09119624644517899,
      0.11970313638448715,
      -0.09381329268217087,
      -0.053984593600034714,
      0.04327993467450142,
      -0.09907037764787674
    ],
    "input_x_2": [
      -0.09513738006353378,
      0.06358688324689865,
      -0.06128327548503876,
      0.03321261703968048,
      0.14086797833442688,
      -0.011937479488551617,
      -0.10795150697231293,
      0.027591662481427193,
      0.1025126501917839,
      0.03739941492676735,
      -0.12175191938877106,
      -0.023220060393214226,
      -0.03429406136274338,
      0.03900429606437683,
      0.06662409007549286,
      -0.10419287532567978,
      -0.015014071948826313,
      -0.09238091856241226,
      0.027857568114995956,
      0.053057167679071426
    ]
  },
  "train_losses": [
    0.14995038864785284,
    0.1266784366917905,
    0.12454691207424701,
    0.1231540538133665,
    0.12232496506491736
  ],
  "final_predictions_sample": [
    0.0,
    0.40025786,
    0.5584397,
    0.77113825,
    0.27147037,
    0.21611671,
    0.27522245,
    0.16853677,
    0.18770498,
    0.3847838,
    0.05263472,
    0.16497119,
    0.27157274,
    0.0,
    0.0,
    0.4557913,
    0.0,
    0.0,
    0.0,
    0.0,
    0.50833005,
    0.0,
    0.0,
    0.0,
    0.025628492,
    0.724581,
    0.0,
    0.0,
    0.0,
    0.4503206,
    0.5079603,
    0.27382332,
    0.6862872,
    0.014174402,
    0.0076658726,
    0.42368263,
    0.05008305,
    0.4144792,
    0.0,
    0.0,
    0.30341613,
    0.62401676,
    3.2000244e-5,
    0.0,
    0.0,
    0.010554284,
    0.0,
    0.64064187,
    0.0,
    0.0,
    0.42564017,
    0.6185051,
    0.39108807,
    0.30999047,
    0.4418403,
    0.16587266,
    0.05682732,
    0.77132946,
    0.070347235,
    0.0,
    0.0,
    0.0,
    0.17340353,
    0.38005275,
    0.74253,
    0.00088873506,
    0.0,
    0.73454225,
    0.0,
    0.4012691,
    0.7240992,
    0.0,
    0.27749735,
    0.0,
    0.22763962,
    0.011973858,
    0.27980626,
    0.3947931,
    0.5096264,
    0.23487967,
    0.299358,
    0.26111683,
    0.0,
    0.16074494,
    0.03607702,
    0.0,
    0.24115613,
    0.008702373,
    0.4204823,
    0.0,
    0.5616757,
    0.35090715,
    0.0,
    0.6730319,
    0.09027733,
    0.08030864,
    0.012973743,
    0.008062654,
    0.0,
    0.28338882
  ],
  "predictions": [],
  "test_losses": [
    0.12867870926856995,
    0.12620936334133148,
    0.12496726214885712,
    0.12296711653470993,
    0.12457598745822906
  ],
  "test_accuracies": [
    0.8091763405196241,
    0.8102819237147595,
    0.8127142067440575,
    0.819126589275843,
    0.8182421227197346
  ]
}