{
  "weights_sample": {
    "input_y_2": [
      -0.05158989876508713,
      -0.14624148607254028,
      0.0834651067852974,
      -0.14284898340702057,
      -0.0791136622428894,
      -0.09358286112546921,
      -0.0958583801984787,
      -0.05808509886264801,
      0.15056580305099487,
      0.04064425826072693,
      0.09338705986738205,
      -0.06393509358167648,
      0.08126728236675262,
      -0.08222555369138718,
      -0.05269288271665573,
      0.06385930627584457,
      -0.03289850056171417,
      0.09395736455917358,
      0.1493731290102005,
      -0.0022421739995479584
    ],
    "hidden_layer_2": [
      0.05453645437955856,
      0.0,
      0.061339568346738815,
      0.0,
      0.10390444099903107,
      0.0,
      0.0,
      0.07930130511522293,
      0.05290196090936661,
      0.05448809266090393,
      0.09514378756284714,
      0.07988272607326508,
      0.040902942419052124,
      0.08973970264196396,
      0.08402227610349655,
      0.08665788918733597,
      0.05606048181653023,
      0.05411270633339882,
      0.04198892414569855,
      0.05701722577214241
    ],
    "input_x_3": [
      -0.05284036323428154,
      -0.19216680526733398,
      -0.10168103873729706,
      0.23500145971775055,
      0.01724911481142044,
      -0.06143859401345253,
      -0.17419269680976868,
      0.23285804688930511,
      -0.15891504287719727,
      -0.044827599078416824,
      -0.11003851890563965,
      -0.22805681824684143,
      -0.16093604266643524,
      -0.09709588438272476,
      -0.08620800822973251,
      -0.22430634498596191,
      -0.03014386259019375,
      -0.15116754174232483,
      0.02970167063176632,
      0.03322198987007141
    ],
    "input_y_1": [
      0.05271764099597931,
      0.1615455001592636,
      0.24597911536693573,
      0.07729580253362656,
      0.11675721406936646,
      0.05458860099315643,
      -0.06706266850233078,
      0.03130858391523361,
      -0.0009288806468248367,
      -0.021414445713162422,
      -0.0030070594511926174,
      -0.0094144307076931,
      -0.003851511050015688,
      -0.22686514258384705,
      0.028380131348967552,
      -0.1424991935491562,
      0.2283845841884613,
      -0.00011110897321486846,
      -0.00139384507201612,
      -0.1293189823627472
    ],
    "input_y_3": [
      -0.9869064092636108
    ],
    "hidden_layer_1": [
      6.24230015091598e-5,
      0.02014501579105854,
      0.0005080895498394966,
      0.02550198882818222,
      0.0,
      0.016446271911263466,
      0.02747967280447483,
      0.0004144076374359429,
      0.0,
      0.00033213768620043993,
      0.0012897024862468243,
      0.00047512928722426295,
      0.0001535471819806844,
      0.00029031842132098973,
      0.0005371613660827279,
      0.0009367151069454849,
      0.0003903047472704202,
      6.697006756439805e-5,
      0.0003162887878715992,
      0.0006581519264727831
    ],
    "input_x_1": [
      0.13702388107776642,
      0.12335988134145737,
      -0.08760473132133484,
      -0.04313298314809799,
      -0.015607062727212906,
      -0.08108626306056976,
      0.0016128076240420341,
      -0.13840323686599731,
      -0.09350303560495377,
      0.1102570965886116,
      0.07925273478031158,
      -0.12738485634326935,
      -0.12703368067741394,
      0.12595893442630768,
      0.09119624644517899,
      0.11970313638448715,
      -0.09381329268217087,
      -0.053984593600034714,
      0.04327993467450142,
      -0.09907037764787674
    ],
    "input_x_2": [
      -0.09513738006353378,
      0.06358688324689865,
      -0.06128327548503876,
      0.03321261703968048,
      0.14086797833442688,
      -0.011937479488551617,
      -0.10795150697231293,
      0.027591662481427193,
      0.1025126501917839,
      0.03739941492676735,
      -0.12175191938877106,
      -0.023220060393214226,
      -0.03429406136274338,
      0.03900429606437683,
      0.06662409007549286,
      -0.10419287532567978,
      -0.015014071948826313,
      -0.09238091856241226,
      0.027857568114995956,
      0.053057167679071426
    ]
  },
  "train_losses": [
    0.16163013362105239,
    0.1134117292273171,
    0.11243551369269408,
    0.11217595684233486,
    0.11166225444828243
  ],
  "final_predictions_sample": [
    0.0,
    0.5299377,
    0.5189381,
    1.0,
    0.21920808,
    0.027524047,
    0.14658362,
    0.18168584,
    0.0,
    0.4461031,
    0.0,
    0.07716519,
    0.08707448,
    0.0,
    0.0,
    0.30845913,
    0.0,
    0.0,
    0.0,
    0.0,
    0.5843874,
    0.0066649094,
    0.0,
    0.0,
    0.0,
    0.49410966,
    0.0,
    0.0,
    0.0,
    0.15062533,
    0.43807575,
    0.3678194,
    0.6269134,
    0.0,
    0.0,
    0.49361226,
    0.0,
    0.26351437,
    0.0,
    0.0,
    0.22681051,
    1.0,
    0.28276756,
    0.0,
    0.0,
    0.0,
    0.0,
    0.48350346,
    0.0,
    0.0,
    0.19594023,
    0.75525683,
    0.37670088,
    0.4967075,
    0.5480489,
    0.0,
    0.0,
    0.8312273,
    0.054658912,
    0.0,
    0.08534287,
    0.0,
    0.1225871,
    0.31814092,
    0.6484443,
    0.14404428,
    0.0,
    0.80874074,
    0.0,
    0.14418195,
    0.868429,
    0.0,
    0.3006765,
    0.0,
    0.22674009,
    0.0,
    0.43670934,
    0.05516749,
    0.63158846,
    0.4896668,
    0.35052204,
    0.0,
    0.0,
    0.0,
    0.0,
    0.0,
    0.09337288,
    0.0,
    0.48900148,
    0.06920814,
    0.6178194,
    0.33407184,
    0.37152365,
    0.58600205,
    0.28001517,
    0.0,
    0.0,
    0.0,
    0.0,
    0.17056109
  ],
  "predictions": [],
  "test_losses": [
    0.11835115402936935,
    0.11504387855529785,
    0.11410298943519592,
    0.11373361945152283,
    0.1141711175441742
  ],
  "test_accuracies": [
    0.825428413488115,
    0.8294085129906026,
    0.8312880044223327,
    0.8298507462686567,
    0.8285240464344942
  ]
}